Layer Name: dense_1
Weight Shape: (1176, 10)
-40896 -30282 21961 22591 -55244 22311 63221 65262 -12901 8915
31494 67130 29940 10475 24138 -3679 -38128 12872 -37804 56343
55627 -9509 33546 -19293 13244 -21467 14505 -6099 -49575 15405
47438 -37380 8784 -49151 40132 -33103 53272 55678 22943 25678
57535 66059 -61617 43839 -21535 -51973 -47941 17710 51364 -57593
-27551 9429 -14541 -62780 -63965 26056 15662 14262 15874 -1655
60653 68627 38832 16190 65012 68473 33555 -7107 67142 -42885
-17626 62726 -53777 15671 31866 31561 9913 -61563 32347 15956
42860 -55645 -14366 -34913 11695 14366 9403 -13248 -2276 -10137
-58724 -55576 -59360 30160 -5670 20408 31679 -454 56284 -4687
-9502 57730 16577 -13134 884 -33128 64320 -52714 34981 26269
-33832 65518 11043 52030 -43922 35244 53337 63796 38661 41214
57694 66815 53502 45758 -7896 71643 49338 -19494 -35930 -1532
-61593 -60510 44241 -45454 -18289 65955 44649 19159 28135 -37038
65844 -1294 -56474 -20932 45177 33849 4450 7066 45690 59347
3584 50928 -51932 -47 71856 11544 -68906 23284 12065 -21807
57543 51882 -11072 -16491 -36369 -14087 8496 17752 36253 -28291
22025 -57801 18857 -47145 8886 -59371 -30835 63389 -2931 -54449
46234 9286 56965 -53698 56034 -42941 19905 -8542 -24470 8217
12493 28358 9103 -30857 49970 36398 6316 61135 -48999 -36613
-59727 54077 23062 -32007 -55681 -20167 65480 29303 58360 31561
-46853 -8515 8972 32094 55727 -42892 197 76993 21425 59570
-19180 5994 -24048 22339 57268 26869 -27533 -40011 -52737 70451
-21871 -56118 -4281 7793 26168 60220 -12420 47864 44149 65879
-48750 67840 36318 -20266 10946 76800 5583 16295 55815 28845
-40336 14300 59346 32811 -33246 88737 -570931 19530 16428 -57240
44710 56397 48162 14934 38925 -59540 26666 -53503 -38051 39479
-50249 -24462 -53748 -1078 37260 25566 -3793 64203 47636 -69997
-7998 40594 62881 33908 43253 17516 13125 -47112 56801 27296
38793 -36107 49512 66872 -13357 -28206 -54016 -58906 28876 -1507
32682 -61848 -53382 -15584 30619 -46765 3262 8556 58751 46362
-66833 -62717 -39328 51289 32496 20291 -64762 -31890 68499 14622
-22592 -23953 59237 32147 35805 29259 42427 419 -46490 8094
-2848 70545 265938 -57092 -4506 -554802 -543615 262695 70202 -6678
67324 66918 -58915 59150 -56220 -44996 37159 60523 -4127 65056
-8257 -60250 -57289 -41085 -62950 38815 81013 35529 -38425 2627
-67766 43334 19742 -57845 -34582 66617 674 39503 30611 2938
31085 61442 49472 70317 11908 -48870 -43396 47828 -13033 -52297
-56958 26711 53343 -27885 -30039 38514 64052 53010 -30428 -56118
-58228 60560 44064 57087 23825 -46268 55396 49320 -24285 61750
44188 11458 24948 -20920 835 11626 -57969 -41206 -21203 944
22425 11699 58789 -61252 -21442 -18412 40859 -56043 61504 -39679
-45481 19884 -62789 37186 28246 -62053 41626 27868 17243 -3992
-45015 -379 55614 -31043 -61681 -41383 -4897 20775 66295 46561
-39180 40174 -19329 -21753 11535 -23302 -11017 49431 55959 -44052
-54211 -3378 -22396 47917 -55614 53711 -33857 25680 16744 62375
-24621 4346 -53555 53852 -32786 -38859 15394 58480 25924 -16310
-45284 10266 -53253 -33892 26110 15994 60191 -51896 -43064 54443
28388 -35261 69630 -56696 40638 -56308 8712 -29792 54732 -57334
26682 -17623 -26365 3337 -56007 -38069 -36558 -30040 29890 -5790
62995 -63886 -28574 32093 25282 17371 14879 -38949 19395 -34053
-890 26646 32238 -21481 48110 -762 -50340 -60098 -32351 64133
3280 -15717 83 -6889 -70789 -38606 16263 -33322 24890 -49404
-19908 71139 -7295 -19626 -15623 -48001 14998 -52343 20825 53518
-16544 35566 -18953 34840 -18919 11581 9495 -22337 9064 46106
-64175 659 51012 62008 34879 16811 -28215 48441 -62469 46758
-50667 48210 13696 55496 16234 29304 61788 25473 33825 67469
2597 -68055 42627 41234 -50840 39949 -2207 -15903 42533 64856
38644 40940 314 42832 -33296 -7403 -32943 6404 30156 70732
16404 21109 60753 49484 -29271 52456 -55684 9852 54095 -57738
-38531 -24655 5085 -3975 3170 -61804 -53681 -13146 -32283 -23166
60915 -46995 16906 -41751 24602 40474 -59358 8727 64188 -7785
-58462 -11348 71592 17763 53035 -22081 -62895 18474 42781 51228
18265 8378 52271 -32747 -54189 -3144 9970 52130 -16448 46952
8544 -3249 -53616 814 -21553 29996 -33996 -3112 25590 -951
37626 -29276 -27773 31308 -3532 -2375 74872 -21416 21545 -55116
-47992 18121 3512 40064 -32787 -20630 11453 30323 27587 27965
26761 -415 34547 54553 -8189 -38365 -49498 -29645 26811 -24932
-25763 19438 58352 30930 35468 -64181 25358 -8528 -53330 42558
35507 33951 3969 48508 42210 28076 72992 28516 -62401 -14962
58935 70277 -44842 -12023 15618 5973 48411 48562 -63935 59405
-57031 21710 -3386 33870 -48680 -9111 27566 -59027 -8871 54583
5272 -22292 -35506 -61820 -13479 -955 4038 -28468 -29198 56520
12956 -31679 29550 52247 38082 59352 -32105 -20951 -36715 -1388
18312 59741 4362 18234 38371 11867 32512 68499 -26011 37833
-41975 11298 -33722 8014 -15619 54750 1510 -20113 37394 -56692
5019 21374 38339 -12473 -38397 -31246 -52749 -31392 -26350 30094
4134 -40613 11697 -16283 -27004 54795 67015 -21118 -52508 40042
-34576 -38246 13994 50457 18644 73599 39948 69397 7558 -25222
57213 50724 59772 31311 34537 20979 21869 13486 -34263 62230
-53774 12630 4569 5145 -11502 -30142 18668 -34990 8025 -31251
15853 21945 -67829 5279 63480 29646 47894 72385 -24330 21855
22801 12721 -57120 24836 -7627 -38343 -56889 62236 -46619 4602
13910 42526 30972 -3519 -13499 67704 -8529 18851 60885 41138
-56684 -16648 15225 48047 31587 50527 -4799 -56993 70021 -43466
15514 -1220 -13792 42449 11637 30463 21099 78975 -29589 -2264
-4083 55280 53913 15654 -19836 5637 33695 7885 -34829 -43389
-29890 -11646 66198 -26602 -71040 46242 -21625 5799 18406 -26803
-71502 14538 37627 -27469 -58606 -25149 67516 37925 3151 9534
-7662 -23432 -9692 14673 -42841 -11574 35651 -13792 -8901 45544
43849 -30494 59662 5594 -54088 -20495 -66478 49962 -60713 19983
21091 -64996 57124 15326 -55877 -29240 -23737 -22556 -50025 11717
55840 -17418 36420 55848 -21516 -24724 -47494 20101 -754 -39781
8954 32858 28608 2709 34265 -39030 14575 48727 -44104 3496
-47330 54379 -9234 5574 3210 27103 23753 46355 -41640 -30133
-42577 -69139 -70661 50504 -27120 35938 60902 -59589 -55536 -36580
59287 -36866 -38147 65903 8309 21799 -46929 18633 -399 -65073
-64288 9954 25529 -17187 21159 33286 5001 -61418 -40901 -38381
56642 -38335 -11408 -30851 -46406 -35125 6888 -8636 67415 20175
-2620 4927 31650 37459 28804 44562 74273 -10380 48927 57969
25898 -38803 50105 -55988 -16311 -32355 53275 -62433 35530 36374
33588 23919 -55092 16507 4485 -45863 14904 22923 -56753 62024
-24726 62327 31537 -59975 50587 -56749 -39220 11770 5896 -10024
-16846 -23850 -62410 -41951 -40672 -49839 1873 36367 -9333 -15331
59391 63953 62310 54358 46360 4794 40217 -26176 -34714 -59778
-16785 44288 66722 44025 48804 35712 40659 25520 67695 73825
-24879 -51379 -39075 30543 31312 36662 -15573 -16494 -59157 55647
-19683 41887 -37302 -37796 6884 -52430 -21782 -13989 -60966 -27435
-13902 -31075 -2688 -16148 -55765 -25752 -31739 2417 -44240 -21006
-69546 75127 -63736 -50018 60274 64207 -16912 -14396 -49433 23521
-67256 -33846 3355 65414 -49358 63471 -47480 -1742 -14364 3202
54184 -63089 -39307 -40398 3436 -37907 63917 2719 36580 -13219
-39085 28469 -36940 64750 13226 -55225 -28062 62043 20917 -64824
-26381 -24257 -47790 4420 46650 -47557 12485 53137 71055 -12790
4531 30119 -9463 -7537 28858 2764 7026 16221 -24101 -32897
20276 -41505 -31553 65592 -9844 6378 69345 12950 54424 35795
67030 -43031 38317 -32467 181 31106 52425 71410 -56099 -65336
29191 -10505 -23973 27664 40202 -20708 -60233 -57098 37551 -49807
69165 -54978 49138 21729 8873 -28390 -66342 -44052 -24409 -2206
-58580 55822 -42680 -54102 31333 18301 39848 -38959 -49895 -51753
-40770 12697 -65847 38330 35647 8061 12426 -34276 -52721 27286
73452 -44900 -29100 -7697 57014 -43403 -5654 54330 29880 61798
-11838 43286 63962 24912 -15479 11738 20155 -39615 41138 22031
-48087 -36659 -25731 5470 -23157 64318 57445 -43805 -2879 51730
-31695 -31627 -10865 -57357 -9443 -51306 50503 14879 36696 33589
23814 16175 57229 -58247 32531 39489 -64962 40311 -5755 -20478
57764 39064 -25599 16748 -11740 48937 22109 23120 -42553 -64018
30261 8918 52186 68338 -15260 22937 -43608 23290 -68089 21144
50127 -19726 46148 -18633 -63611 -13297 -11891 53723 -30091 40567
-41138 51392 -29329 -1396 -35615 -49740 10055 -23859 50449 -55762
-3704 501 63581 -49101 -23695 -20264 -1876 -18220 -37602 -6111
8763 -19252 -379 9812 -38256 -41802 -42869 -61092 -11849 47477
8095 -10658 50705 6548 25942 63379 -40291 66622 -19232 16132
-23200 43692 -43833 7150 -45807 23485 31917 -39997 -20629 43930
35384 49584 -64657 -66436 25885 -39394 -76054 -10076 47751 -70515
-25401 -43200 -25357 60369 11599 41068 -3719 22897 -50443 -68155
12691 -48672 25039 -38844 -35373 45275 39406 -66894 -55436 47006
10338 -47002 -4846 33088 24966 -37439 4483 -4100 -62206 -51128
14163 -42352 -35210 -7192 -53910 50417 -6415 -36208 -20342 427
25024 -18853 -65025 49488 -26836 -42050 19120 42714 56247 58099
36575 4408 -68545 -39516 14356 25976 -40557 33245 43914 44511
34105 -43817 -6914 770 -48761 22295 56624 35581 46290 -5028
-16926 62629 61448 -17930 37353 -8399 5688 42977 58317 -21360
23396 37382 73384 48979 34388 53089 62952 5102 13103 -18896
-26918 1382 -48749 -59800 7631 59136 -12080 -58286 -58609 61026
38125 -57324 5723 6986 -8475 2672 -639715 54163 -2586 -17150
-30500 -56138 -61346 59645 63746 182 64032 53335 3484 20996
-16324 53043 -3113 24622 2945 2441 63623 -40641 15688 -30955
61541 14157 -17751 32935 44711 -62858 1229 -41858 69208 -45879
60682 -53425 -55046 -3774 60870 1208 8138 15249 -5541 -34416
-10706 65583 -36580 -12044 17829 -4287 -8652 -29754 -33779 46065
30483 1244 -6714 7985 -33380 9221 61311 10772 43848 -3397
26868 634 26628 -4091 12116 47028 19031 6943 23221 -26108
63507 43278 -20287 51852 66728 -21138 -35731 44623 -44983 -17859
13191 77742 10561 37904 40764 11454 39983 -49940 62541 -60836
-20049 44306 2150 55430 -23466 -46348 -38615 -34219 58176 68263
18802 -7126 64390 58274 -31496 -49516 -51674 -33020 -35386 35000
-19286 -52584 -54696 29406 1510 -2079 6820 21322 -56661 -42895
-35616 -60409 -52144 6219 -40203 54278 36659 -36128 -44626 33557
-23825 11470 48334 3343 -43723 1338 -63897 49335 6380 17382
-42528 46939 37541 45453 -25346 22756 -42134 35572 18840 -28694
13384 -32150 33075 22297 41934 5016 35177 -18851 -51648 51436
-25640 13544 -62106 10267 64628 9335 24361 11000 -33838 45629
-29604 53830 -4386 2811 68743 50955 -53377 37755 57642 68274
15680 -33703 34849 -71104 17399 49518 -47893 -53285 -24920 7212
7802 -52709 -25091 -56071 7254 -45852 -25435 -33952 -22629 51525
27831 34290 59128 -15446 -1814 -23968 12880 -23934 -30174 -27846
-34098 10897 31859 -30089 -16332 25003 40913 59319 -52599 -4417
-17696 -20248 -60791 5050 -44325 -57041 -62662 -26668 29842 28401
15193 -48151 -2464 -22643 15883 51494 47318 -58074 24021 44111
-1029 -2430 68444 16238 -29873 24037 79201 -54035 -12245 27382
29427 9620 14672 -26066 41217 -58839 -53684 17867 61236 -60502
-66506 75093 -7737 -38508 -19102 45195 -38131 28934 33537 -33448
-25444 -10086 67137 43384 -6104 -10633 27222 21435 -9511 -11443
44227 -44128 44035 -7080 12705 -69072 -31041 -47194 16206 -23608
-53452 24408 -18562 29365 -31714 14963 18677 -32179 4374 -60972
-17299 -6647 55755 7701 -67005 47562 46614 38728 22028 -6054
13375 24393 40297 1395 -3312 -41826 12884 55870 -24498 -23725
-33516 53332 -860 55593 -55360 -56340 1242 -36229 -62718 45590
-46347 31162 58727 -35002 -16889 6232 -45141 12556 21847 37963
73244 -35376 36345 -4681 27112 -40242 -12590 18347 63890 12766
-1809 27545 -4640 -30920 19262 -18187 -2571 -20695 -51258 71597
4233 37048 -42982 -16607 -12461 59442 53956 -28703 4892 -45106
35586 5262 -10056 -4148 -27644 18519 56538 -12838 21701 3600
48924 -26542 66257 -17824 9406 64212 -61765 -65269 -37807 45993
50775 -50901 35348 -63150 -19193 -3823 -55761 -21258 1046 51373
60863 -30297 9196 30242 49256 -53037 -46104 -59700 -54831 -44960
52889 75613 271 18512 -47486 3927 11787 28161 -8403 35964
69336 9388 69288 -59476 51558 15150 27264 55369 14454 53274
20332 -27117 -1751 -63189 29436 -31484 48753 -25801 3337 -16000
-35732 44997 -55509 -68070 60262 -52615 51639 15397 44997 38541
26121 62037 36982 -50315 -6193 24524 60641 -36610 7014 -50812
-37315 -56956 4680 -56658 -52179 47933 46938 37482 -12290 24930
26296 -27181 -53814 -60239 32194 -31635 22006 -51172 -40731 10576
-61385 30545 -30515 6467 6902 -2553 27129 -5226 -22337 11764
32113 14795 -70361 -60409 -56160 64166 57058 -37958 48619 17593
22575 30502 348 25682 -59128 50828 17836 32972 -61739 3102
51307 39341 41600 -44932 -29133 25670 15850 58964 -52193 39796
-60513 35678 -24850 -24653 -26450 39483 15365 32040 7715 -9392
19996 -46537 44568 37599 13842 47963 -44528 59269 56784 -42582
7394 21980 -40067 6816 -55193 -5926 -60166 17893 -59094 31995
24641 -8937 25826 42246 -3878 -11794 34765 48193 18113 11468
22494 71343 9622 -52675 39306 -60602 71859 -18278 -9800 -12784
-62693 -61290 -69927 -65828 8631 -39292 4058 -3 -56835 -10265
-16392 62284 -10211 -6393 -2506 1412 -6487 43340 -5556 -38418
34919 -38207 -31564 -38653 -17438 42642 -10529 -19527 36902 52888
23983 46811 -48422 -19202 15605 -12885 -30792 12144 -53252 -49338
-31118 -61136 28796 -24900 50236 -59206 -28090 8178 56454 3052
45882 -67813 11991 46742 -55298 8568 10680 -26198 48547 11444
6321 33399 53254 21060 -29526 14699 -729 -3250 -63516 -60322
-9926 -62027 28024 -39912 -17498 55046 38549 -55983 -23171 -43800
-41890 10739 -5715 41125 -59389 -29131 -36108 29665 42016 15221
-61108 37040 5174 41720 -30372 28344 14641 -15895 -5239 -19501
52271 -32345 14052 -33002 45835 -15842 49475 -54113 -61127 57261
41326 -55012 -1535 -11009 -11115 3216 -17736 7861 -21184 28513
69656 17020 -40616 68324 5 -17998 3033 -38938 52473 -30302
63759 -21016 24836 -47301 46666 -9934 50925 47288 -17876 -50230
-35127 29386 38951 -40576 8480 -61375 62115 -50478 -27238 -44311
-26606 -27323 -58312 46952 -50129 -41210 45822 -41991 -57366 -59435
-22287 -8048 -1071 -632 -34853 -16910 35774 -63932 -6982 -32458
-22682 60018 65691 -49090 -56214 25804 -27352 -6147 -376 13234
43010 56688 2924 -23302 -23845 32070 26067 -64724 -35258 -44585
-44660 5114 5968 -32310 -61182 -16023 -52286 -10511 1802 44270
-60339 19342 14371 48709 70859 65583 -47880 49726 -28650 34032
-16268 18718 166 42096 16500 -6760 -11890 61084 33201 60900
-64157 31243 28075 32763 50788 10429 -15536 -4393 33950 -19131
-2847 15475 -22364 45251 4650 46470 7004 21673 -16041 62832
-58926 73077 -15551 77729 2440 7021 -39116 -60908 13292 -41495
-17154 42383 -36562 -46378 -42178 -9949 -18304 41901 1996 -9250
-17177 12064 -29254 -31690 -43091 44229 27826 -32137 35074 -45991
-63319 -44602 42854 -30962 45678 40812 29947 -55855 -29681 46278
-10658 -43020 28255 41609 8646 -58982 -69752 31518 -21733 -21672
-33256 42909 20555 -35248 -51148 -40754 24158 12754 50045 -51261
-36208 -3737 4802 51613 -11358 35491 -20345 13401 24780 19339
15179 69660 -13938 47045 64209 -19883 73749 -50372 28454 -22883
40188 2488 -76065 -15046 41310 -9722 7214 37768 19970 -46747
21016 -30944 -30882 53623 -28985 64277 -19951 19884 -15493 63242
42623 -26378 15982 44311 -48092 66205 -27211 23440 13670 70400
40677 11657 31798 -13476 29933 27680 -29956 30704 -3862 14372
-12889 79531 -64702 23861 48446 -42497 -17870 38177 3267 -56100
36405 6867 40664 67694 -7776 -60969 30648 19420 54885 -41
-46924 -38343 -12083 -12053 -16 -26315 54332 35874 27055 -66489
8085 -50653 -21127 41956 -2273 -43473 41454 12341 -31114 62820
30577 39807 29809 44525 -17039 -60287 20758 52397 -25837 39085
60143 54189 56369 50074 -56210 -45192 8706 345 -16859 -16083
951 40228 -32795 -50957 29864 -15921 -34997 6761 40636 22538
-28936 44547 62098 6849 10530 53997 -3443 -61076 -45941 21032
-19393 -10176 34181 47235 -30314 16510 -12043 58307 35156 36848
50517 -18255 -44308 -13046 -1309 -54587 46068 -14875 19079 -14036
24075 10498 -31631 -20512 -6343 -36527 -57353 -43746 55785 26400
-5277 -59210 55864 43721 -44668 -68781 -50355 -48266 14944 38952
5422 -59958 -4584 21352 28687 -40761 -8604 25558 56156 19743
1303 -22852 -41386 -20719 33588 -61676 23850 54465 29315 -36744
-30989 73745 29505 -19941 24183 62156 -61311 59744 -30260 25201
64280 -63153 70824 36150 -31540 16092 -10730 32552 19967 -59406
57066 33645 8562 25828 9841 -65778 -52933 -55174 15854 52771
20047 6735 18158 37103 -2672 -15392 -29779 -11767 18805 -30672
-33266 12613 30595 -3250 6724 63639 -15588 -15278 56454 -4984
-32314 -43066 -6916 -23157 -15498 -20475 73977 6847 2491 48114
-35720 4046 -2633 44658 19953 -35915 -6654 61707 -59679 31315
-46501 43392 -4782 -38113 -37267 -51239 33427 27808 15144 -3518
-27123 -52235 57235 65078 19546 53886 -47855 9513 -56429 12220
2450 50934 -70008 -53261 -56403 46618 -30004 -49996 23628 1029
-37108 35534 11953 -59965 -34297 45213 9309 30426 -20265 -53168
67585 27970 40045 33037 -26518 -21967 -35138 -57029 -60685 -4664
42143 33067 -46037 51012 -22026 -18635 12761 -23850 53504 -24645
-27306 -40577 -31951 -37391 392 55409 -6377 -16179 -48294 41248
5023 54325 -815 58909 61641 -4042 -2462 -57694 50343 632
36688 -30891 -397 -5014 19049 15511 5220 -14008 -72551 -50718
38697 -32026 64704 -31350 35498 43237 -4791 20591 -6748 -52106
30244 -23587 64463 20371 18004 -39375 32673 8668 49747 -28007
-40061 30149 20060 -4981 14952 -45279 36778 -24232 -24664 7640
-30827 33826 -47146 -54698 4084 -22665 2209 -18417 72816 -64468
53012 17917 58864 7305 38013 18508 32497 -45065 12224 67444
-51223 -62848 -50960 -30342 38414 -13486 16669 -32751 42511 -44581
15859 -32611 56905 21780 -29014 19395 -8231 -9553 60319 -66867
-63888 63449 -16069 -10330 31073 70536 -7726 -50078 25528 54320
10960 -43573 -59779 52690 51394 52026 -12672 5517 36465 63923
-37054 40466 47087 41398 -32853 -32654 36138 68901 47256 49962
-38529 18286 -32881 26433 42463 30523 25535 33046 41595 -41777
-32108 60389 -206 30743 4454 54458 32860 5450 -4263 63087
-64187 59594 -35600 25484 11193 -7043 67372 10548 -20345 -43663
-6643 4387 -34362 43151 29081 26392 53792 -15091 27332 27304
67492 56969 -56686 70262 54516 -40794 -61129 -6846 64091 -3422
-18173 -56834 8181 44089 -41455 -22400 -17089 5459 -48165 28610
23242 -8828 -33268 -63223 24936 -64104 -43686 -37379 -15802 -10376
63684 1115 15961 450 -41550 -23768 1541 33270 -24361 -27149
-10642 40346 15584 -26324 -68902 -53845 7712 63672 50295 -64543
-35419 -44071 54039 -51608 -16821 -3811 11362 -28854 60125 70878
55031 32303 5868 -15885 35110 -1319 4520 -8748 -37147 59120
-38701 53444 65529 -22799 -53787 6006 53349 -36766 -4109 64613
37722 -20156 47792 6173 -13783 55912 -56293 66925 52665 40595
12063 -2654 -29391 47234 1034 -54120 -24044 -56821 67925 39311
60450 57725 55424 52592 -39399 -54597 -21129 -5847 -62712 67034
-25825 19189 13065 -3518 -61902 28831 -39898 -36012 35859 -55452
36372 -57851 -44781 39195 -11332 -5295 -3553 -14678 -14372 -22537
73943 71934 40475 43352 30531 -27279 44299 -43559 -29539 40256
41239 -4171 69453 -35108 -56134 -5726 17421 65210 7356 13099
-51101 -35350 -14934 -69321 -14991 -2110 35853 -39085 -11101 61359
-59511 -3399 -48934 -685 -31230 9743 -59945 64632 71209 -49336
-53908 -64447 -17501 -11621 50753 -2670 -30083 1967 -52657 62348
-43613 65702 58477 7459 26500 14844 50322 33118 -17647 -16716
47921 47125 68914 66422 -36065 32306 12993 9869 -61920 54195
62089 40739 -40150 68199 38226 64752 -48805 -11445 -13024 48062
41640 -50227 53813 -20234 -42971 17299 30446 -37131 47064 38158
32854 -14294 41131 25264 41610 -21819 -53477 -58904 -61023 38703
-56422 33851 -8943 -15792 18690 -328 5489 -20868 12019 -15229
-5896 -25193 61982 -24906 41321 -30949 -68732 66307 -36909 16904
-50160 -28702 59298 -24505 -52069 -42938 27613 30637 -48197 21180
31145 -34122 -7384 -14641 -57406 -40557 -3584 -61174 -14738 183
-9898 -39369 -19851 -65382 22624 55355 -640 -19756 14882 -26428
-53286 -24734 47830 -35645 39080 4559 -12117 -57811 40477 -14162
-8285 60817 -40752 -13036 -54060 25305 15162 12864 9240 -6442
-43992 -59785 36691 -25493 2605 57121 49346 26921 37804 4719
11622 60436 23517 -17182 -3408 66551 -9185 14796 18505 35200
-2056 -32511 62188 20431 -52832 44732 19887 -66295 -45606 55504
-68611 57166 10802 25167 9758 1017 -3257 10281 -48765 37596
36951 -69572 -3958 -42226 -41634 -34603 -44169 -40031 48690 -35064
-38613 -41983 8191 -17279 -60393 14258 11251 -30805 27371 -59459
59726 66497 36655 40807 -10809 43581 4013 -54615 -66992 52716
5884 -25559 -10695 36258 -43785 11557 -51043 -11713 22701 -26787
37395 -23331 55220 19330 -3115 1909 33587 70452 40041 -22828
-23086 42373 71050 32969 73415 -39315 21331 43908 -887 47198
-8005 71109 1511 -60664 25473 -56083 12618 -27193 26091 62120
48569 -20740 24410 2323 1778 -11184 67330 10893 1730 3061
48157 -14815 -28398 -17741 12609 -52559 -26274 -17250 1943 46113
-30171 -9465 -45703 -35536 -16853 31776 -62956 -46242 64895 -29504
58809 25100 -52676 14302 -28549 47011 28082 -7255 -8447 -56422
-52529 5947 -7897 -26934 -19781 -5936 -70969 -38914 33039 16040
22568 -8588 -59684 66984 -22963 70565 -42784 38055 -53879 10836
-38158 21661 -6969 69897 18002 -45480 1250 -947 -23593 -7660
59275 61801 -5428 30296 9839 -49146 45533 26573 -4198 11490
30644 -308 11571 13180 -346 61039 -5685 -1178 -56786 -20600
55043 33959 9639 41407 -16431 -9001 -35947 -17563 36588 -15179
9437 -36124 -26425 13654 -49055 40347 22564 47620 -30834 -268
66881 53899 -24075 26179 27032 46635 509 -45591 43966 71748
25708 -36999 -25853 -64737 38498 -62287 9185 -23559 48262 13002
-48193 -27156 33420 -41680 38029 19025 31001 11051 15637 -42640
-16463 16941 19105 3411 10151 -6783 41843 -11130 10716 50570
15271 9718 -19040 46206 8816 -20736 31157 58929 -24083 4792
-19441 -8634 -35422 -59438 19079 -29225 55530 60421 -40296 51955
-23321 37242 -21236 -25773 5812 8905 -48317 -15308 -60430 -39202
-18877 -62112 -42211 14061 9846 20200 68717 -39047 -47805 -33545
-18385 30834 9815 42280 27183 -29661 -33052 -46235 -18471 23891
-42539 37091 29771 -43944 -5502 2505 -60107 31588 3298 50684
70041 -22177 -8381 -37152 -26054 69237 31699 51179 -37207 34057
31823 -49488 -461 56426 34192 -8969 4993 70294 35506 -28161
41052 30956 -4111 15982 -44535 43750 -52441 -51100 31782 -25421
43466 -53495 -29087 61107 26729 -39985 -60775 59222 2110 19680
-18182 -31156 -53723 -39332 -63825 37023 49174 10747 -57109 -3785
-52359 8750 25671 -28116 32241 19098 72810 -31836 -44291 47932
-26360 -51893 15402 31493 -12791 -16192 -20879 -15914 26028 -1119
12661 33099 -15120 55722 -17212 29852 -67551 -32051 12552 29073
-31595 -56079 14213 -16491 37805 1488 7273 -36268 -66588 3977
-20888 5169 7162 -57088 -17189 -48440 68923 63188 -43044 48734
-43515 10801 21639 47356 31298 -28718 54310 -62516 2734 -62308
-18460 -43505 -1760 19869 19945 35116 -35160 -24235 63237 28732
45878 21498 33566 44350 -4005 51127 43392 63392 28211 -27155
9723 5514 -20382 -15961 11891 -62900 -42854 38772 -22321 -6612
54438 -10151 25204 47152 -29911 -40035 19789 50275 51288 -55835
34027 70150 -3291 29307 3702 10579 -55594 -28671 -38336 -9925
-50363 30185 20456 -24074 -42687 -48467 39429 -33441 28274 33217
25224 -10299 34460 39622 8432 -8070 64169 41903 19964 -45391
-61361 14405 -32884 -10152 6895 -28188 44462 55795 -22790 19933
-68601 66169 16529 37779 -29777 37135 -11422 37689 41714 -2727
-27570 62333 -16606 47185 -3979 45399 28699 -52455 -42168 -48471
58818 -20504 -59664 58113 18587 48296 -4866 -33200 59442 38997
-51865 66397 -39493 -62302 65376 16779 -25901 2321 68162 21506
-53157 58198 43678 -32823 30961 10272 -12277 63664 -30620 70010
44317 -39309 20947 43581 -41312 12463 -33392 31909 -49240 47196
-54532 65063 29287 -29461 6259 -48343 32030 40938 52906 -7218
46703 50396 -31231 -21803 15077 -58581 522 53835 20717 38226
-39801 -2181 -8046 23428 24594 12869 56940 -42812 51905 -43514
5336 46002 16836 -7035 -9737 -50800 -40366 -60078 -37392 -54531
44892 -51633 9864 -42201 -10532 -11879 -54422 -11295 62893 39751
1903 -65875 49630 -25079 -24764 -18490 -58806 -25939 53716 27110
-49687 -36079 19826 49439 33302 20478 -5653 -1980 -23171 -60628
4178 57527 3250 11480 -37973 37760 -51911 -42071 -21962 66966
37350 27617 -38816 2410 50248 -20137 -43405 24547 32811 -31966
59333 -57894 -8512 -1107 -11404 8244 -55816 -25976 36664 55469
24961 -52004 -784 -57029 27190 -74050 41243 31325 -31437 22082
-9373 11433 32686 35763 -25653 46463 -29286 35795 64690 20012
-19294 51606 52574 32619 -46718 -10239 -62874 -57164 62212 23352
27350 -44369 4672 42259 -23316 -9489 -37107 39022 71860 42486
-53304 -57136 61741 -1898 48467 36177 -23985 -983 15208 32840
44232 49692 -17730 10847 59444 -48948 -28632 52000 65138 37763
-17963 44961 51242 30305 49785 -67072 3366 -54299 64177 -48655
58764 59323 33918 -964 6132 61163 77490 12310 27017 -23839
-71091 -26567 15013 51931 -45022 28967 -33645 -33307 -10471 5888
-58726 38636 -56705 -2912 46787 8643 -32396 -56741 56625 54382
13929 21386 12609 59845 -49496 -6859 -70974 -63649 -11174 47022
55703 22037 -13374 25515 28886 -7695 -33461 59464 12512 -14356
-55631 -34985 46191 -58756 -14061 -63079 -16466 26163 -26082 27483
-18172 40016 -22845 57051 27587 -25649 -59559 -26375 -59319 -23883
-43449 -20161 -49227 14239 28157 62568 -76041 -13887 8763 16745
35126 14084 25086 -28443 32389 5534 -18894 -9271 51059 19870
-3988 -40330 47430 -23175 -23698 -8086 44055 -29514 -47140 45391
58946 16366 68389 -59161 22344 -63903 -19686 -5764 -52427 50198
66755 29329 35123 -68325 -53949 17137 -27461 13907 -54451 43039
-70657 32942 -63417 -32969 44879 -73428 -42873 -19893 -48533 -12361
-41526 72579 68413 -961 20652 57489 -45387 -47549 63636 24856
-7432 -15285 -70878 -34337 -59717 -51386 -65466 -32720 -19125 -20056
-15804 16967 58714 -51040 45982 4158 38678 38956 -49360 -49087
-34738 -27999 -11028 9706 -3429 1722 -38508 -43498 -50577 -27665
3195 16709 56576 -41751 -48048 -65834 -45703 53837 -65194 -21018
-65537 49122 48130 -11810 37326 62670 33134 51501 -27286 -47164
50039 -1862 3438 -70497 45980 -8404 -39424 -37760 -67123 -1697
-8656 2841 -39631 -29625 50438 -17965 70297 54709 48336 14142
9387 -13185 69984 49623 -10794 20515 32365 -8767 -6076 -3569
32240 9198 -9744 -50353 -28225 12940 33968 -5453 -39808 -63834
22741 -58533 56112 -56220 -25900 -9592 14606 -43869 51236 75628
15364 -46180 -16375 -35432 -48080 -44766 -5342 -9652 34987 3352
-135 -56960 24507 -55614 8296 -54374 -28676 -1569 43227 -74021
283 -37486 29684 -9988 -53338 -35720 -60037 49461 51237 -20695
-65220 -35515 1218 50777 36539 21486 11326 15849 40274 43902
-37460 13075 -29500 7490 -11251 -63336 -1769 4955 -43087 -57146
9594 -40334 23058 -30739 -71260 -42448 -19541 -41855 21678 53291
57430 51449 -53425 66440 -52684 -53633 48382 -22618 -36073 -29524
65390 -66068 -13094 24292 -57548 34362 -25837 -29573 -63641 28096
-5258 43911 72270 12740 26327 47345 19988 53060 -33474 -41622
35987 -29089 40193 -38059 -7294 -58527 -59078 11237 13596 43525
7684 -14391 11758 -10599 43145 20124 -21150 24960 13567 -32960
26292 13361 -60999 5906 -23065 -38140 -65380 28305 16620 24921
-34562 -38827 47814 -356 74677 35235 -38822 61877 27969 12697
20969 68728 -51826 -34084 24706 -44670 -2053 36990 -22399 -60406
-34778 49594 -13954 26617 -28645 -21220 -66535 -22314 -43065 30359
72828 59463 52624 24415 63770 -13621 74218 -64076 -4362 45635
12820 -54188 -40827 55717 54155 -10815 54648 53695 47619 -60116
-13529 20042 56855 -37749 20745 -10261 -235 -50242 4753 -45442
-23291 -31754 42693 -13565 -11740 36678 70570 -63970 48781 56833
-62142 56094 48539 11469 15791 49972 67169 26667 -2820 39311
-35444 -21116 -46257 56872 -7825 -32126 -47466 -68939 32815 48137
66992 -31248 -3361 21508 58020 -68249 -44000 -2663 -63027 -62960
58004 22769 -11354 -29048 -19978 61892 -4291 -6191 8804 24439
-736141 -660108 329136 -580313 -598821 -46465 -625702 478537 -424533 -65339
-54166 -53000 -61348 -29228 47252 46535 9923 -15352 -57363 57319
52013 49809 61730 20400 -8864 46669 2142 4926 -36544 41925
-42229 -47788 60676 -38973 60509 -62759 74534 53823 -40456 -93677
-3129 -62726 -11448 71102 -50448 -65082 -41748 54387 22976 -51818
11333 65160 18963 59389 -1716 30018 16078 -18393 20751 33658
-47199 41599 5696 17 -40647 42221 -59272 35606 22845 -48188
-38016 -4828 51091 9348 29845 47081 -57518 19227 46681 -6115
20209 6369 40915 -67489 -56244 -59800 15937 67521 -11238 47739
-65052 50883 -25541 -57276 -33435 -57511 -2562 -48697 23741 -37473
-65517 -66001 26255 40495 20277 32612 -29860 -12545 20955 11924
-60854 -57347 -39329 -20440 26610 -32427 23570 -31099 46372 39480
9300 37361 11848 50538 -62525 -53629 1079 54198 -44563 -53846
11704 13768 3169 28 -21185 47040 29425 51432 -3958 -24104
-48402 -53821 19713 -45547 32974 62838 -66403 -38262 -56256 -24425
28406 -34631 -70575 64308 -17302 10708 41290 -39373 51752 57429
31439 72748 28084 15386 4880 -7103 -3023 47510 -10544 61393
-26962 64035 -56428 39964 19778 -56791 -63535 -59281 -23319 42852
51597 -44369 -41924 8926 7912 -19278 72578 -34882 17815 -35652
63585 67383 65397 -16138 21010 -34654 -15325 24162 65031 -55424
2730 29559 11318 43362 31497 -57586 -23372 39933 -2599 -5824
16616 56363 -27477 11365 -4119 -17175 -46163 -39246 5842 9434
-12009 -25206 56500 72872 -1549 6015 -24510 17298 -45922 49142
43977 49175 40905 -41203 -31458 70015 6767 -51417 55327 -40237
-38774 62555 8349 -67943 -49687 -31654 19381 -74333 65722 51882
-34678 -49815 -49367 -39338 56200 53353 27683 27502 -25660 25769
-12007 22290 45187 -47115 21475 64726 -61061 32615 64018 -15108
46630 -29230 45068 29342 28539 3346 66397 24378 -62380 23370
-5778 23451 -55426 73423 -210 -23232 -22780 -40844 5075 24470
-66431 -57703 -26578 62810 -34985 57733 -12223 2864 30747 -10050
-28191 39119 -17861 10720 23456 24989 46364 -39398 32355 -29127
34686 -50739 -50348 -16852 49413 17053 61770 355 10050 3372
410 -33581 -48205 -2028 -30465 3429 56859 -59502 10229 -12163
-34828 37278 -11997 -8843 -34839 27869 -59640 -41477 -15390 -2555
-46205 -8960 -55635 -33227 43059 -14455 -62622 22902 -10030 -6780
-21546 -6672 41831 -32110 -44100 -25616 60672 -24884 -61290 9356
-17173 -57115 -60213 -14076 3419 -52602 -7840 1969 8305 -46361
-57030 -56283 53913 29586 -61047 57882 -28404 31148 67730 -23618
31905 13738 9658 66304 17959 -50056 -38907 8729 50356 26628
7814 -12898 -62223 -40788 45003 40089 6446 -156 40728 -16997
66439 -47118 32573 21272 -28208 -38687 48402 -37153 -51957 -42747
39752 -16332 46037 9746 -69470 -34916 4884 -62867 50536 -49535
1108 2072 34107 41233 2658 -1247 6929 -26732 -33470 16769
34697 25214 26595 -47343 -929 24022 -20910 65633 25125 -21340
65110 -61530 -30071 -29506 -22972 -330 4342 20591 38068 -62779
48877 -51155 -17201 -5125 26591 -43547 46264 1879 272 -19282
4051 -45921 4099 -6000 -30374 13995 47235 -34937 -42138 -45911
42796 -35005 -41528 -1222 -4360 -36574 60415 -22506 4991 -40375
7965 69012 -17550 -19118 -53055 -65308 20959 61585 -8841 -5748
52190 45550 -30555 -13989 -311 44489 71960 -18407 69135 13697
22920 51993 -60551 15521 38183 -10131 -14556 -63456 -9207 -20236
-18199 -58973 12957 39999 25832 8921 -28882 40239 67528 23429
-58855 71167 57386 -51510 -63205 -20628 61664 64627 30912 27657
26954 23291 -56159 -46489 26410 -47568 44266 -4002 23660 -51516
-52037 65260 34776 -9183 12180 22054 -57703 -46809 -47416 -38695
-48451 6609 -39242 -20305 20483 -36168 2997 -6281 -24211 60614
-23140 4249 13897 -25981 57029 14183 -44248 38666 -42716 18831
-66279 -63448 -11173 -49249 -9588 -49496 -69058 -41620 -39083 26325
-57165 -46470 -34668 -28748 45515 31943 61393 57151 -42877 1271
-55372 39254 24854 13689 36390 -57041 7760 -64334 42858 10063
14996 -37363 17869 32587 30176 64768 43591 10314 28078 11643
44453 -55341 42946 13312 47114 -8507 -11824 -59758 24547 -50192
56108 -39681 -33264 -8202 -61371 -66545 -32470 12238 18240 -66909
-5869 34213 -3300 56568 45323 -30052 -44289 62353 42117 47926
-9890 63166 -3326 30674 65822 -33374 -41812 -18498 -104 -67303
-66558 2188 26401 -57713 -29880 -15388 12840 66363 48801 61905
66775 47878 28123 -21029 -48179 -6916 70097 -11041 52569 11033
-75874 37678 -35194 36067 4166 -11435 24764 -61482 43411 -43542
41122 68911 9809 13438 -26699 -20688 -8068 559 59972 -21841
-29780 16395 -37623 52326 -2123 74298 55157 27542 -1766 53678
-77767 -58075 328228 -9701 -18426 -32836 -607007 479553 29629 27144
56379 -25561 60096 -29646 76211 60747 20380 24029 42049 -66451
-22591 24447 -49253 -8378 10442 -34831 41596 -21138 -47533 -39349
10185 10299 67412 47565 -8413 51201 -46334 -56100 26253 -57825
-4353 -6489 -37254 -29356 -22872 -26388 -38746 57552 6143 23343
49896 49583 -42146 -14828 46899 20765 -21637 -596 -2286 44385
-57605 -467 69128 -47528 -633982 33723 -37098 49671 -42329 74035
-56219 -3997 -40079 311 -64729 -9386 22463 -45063 6140 -58705
-39074 11515 30130 -51097 -44254 -22850 -37053 34088 3885 -29624
33092 63931 -37714 -31856 17108 65731 -51713 -47121 69960 11630
7733 -15806 -48727 -35889 -49208 54560 31044 -19880 27377 15435
-19949 -2698 27556 -63651 35996 -49823 -54402 -5609 62711 20485
-25171 34079 5342 -41021 21485 36535 -70799 30335 35865 39723
60026 -9354 8002 14468 46950 18357 50503 -60635 -37242 31790
13216 17879 49216 7078 -52964 64990 10350 -56641 22457 13147
42801 49716 -22990 55013 39777 38880 -13014 16605 -22008 -41503
-24495 -23001 7905 29677 -45522 23006 -52660 50953 44369 41231
-66697 36864 -25120 1176 7696 -15210 45001 35016 -26067 -5885
51693 -44940 62771 7843 -58133 -51407 40852 247 -39793 -43385
-26676 17790 11253 16152 -22330 31267 20537 -34936 6387 -62118
56130 -53922 -60551 -5544 38599 9709 -65570 -68809 -3496 37229
2648 16622 -37194 11027 -51917 -24877 -7105 32854 46996 28124
-53988 -6719 46587 -6841 -1153 -57002 -10575 74081 -24797 25469
240 10727 -5978 -8448 -25199 10482 35006 35175 3393 -47964
44907 -30879 -16165 -65831 -32124 27454 26389 -42263 -42439 -24384
59576 12032 7278 28958 -11624 5082 -47482 -4122 25440 -27993
34082 53647 34709 46260 -18337 -29978 31124 -24912 17943 -49485
65370 -19902 -10380 30669 25949 21519 1766 -12740 62119 28534
-29549 -51585 41706 -38721 19197 6116 -51700 32292 52959 -35100
4392 -34530 62994 -33735 -1765 15382 -36707 -10630 47291 20407
62107 -17344 -32984 23664 -3216 11078 -8358 -30959 -19793 27362
15193 21826 33598 57715 -15805 77528 -53073 26771 70845 17844
-50650 63799 -5891 58344 -13405 36560 -40402 12786 -22198 68943
48296 -38911 40596 64430 18463 48278 7476 -53042 43376 33021
66746 -59411 44660 31757 753 2996 12845 58301 -23008 42064
37931 39042 36988 55075 -4458 -26058 -23537 -44173 -2016 -14762
37691 16059 -7210 -32701 -1075 -33793 8108 52719 3023 -55091
142 -54718 -51513 62660 9653 1694 17389 -16833 47287 -12926
-36149 -58000 17277 33307 -32172 -37958 -31809 54338 64150 28737
22 68129 19894 25629 -10714 22816 29137 4763 -2738 -62152
-40599 30815 -47241 17884 2138 -67051 -54913 4123 -41913 65497
-5735 -5375 83874 -61135 -53577 -55884 12867 71698 -62665 -38694
-4257 53967 -15825 -45418 -26140 -12432 16888 -18031 -1669 675
-63665 -15934 -7203 39545 -56293 41468 12062 51294 -70458 35552
31595 65106 67321 -65454 31628 54647 21557 -21290 65668 54765
-24069 -58839 -68894 28929 -38513 7258 -68096 40482 22315 30198
23637 12149 -49704 63605 -31712 -4907 51410 46266 53933 26918
18150 51803 39189 13626 35073 50694 -48270 50931 41932 -49788
37923 -5692 53608 66552 27386 -51013 24058 11761 -61641 45145
-3185 63740 56385 -7844 -23711 53687 22162 22613 -20062 50181
43768 24798 -342 -60240 -29895 -52724 -33153 -38057 -6139 23386
17943 -63974 -31220 -9531 -40310 -6177 -25693 46659 16533 29809
-16925 -33831 -12188 58497 -48946 -36041 10336 -7 21440 11450
-26439 -32201 7246 36555 -3403 16635 57622 -30110 38931 -48865
50165 34639 -20469 63939 51649 -13262 47695 44724 46703 -32409
-44287 40003 5898 47647 62863 -70461 -38023 -48884 -70814 68096
-13204 -5213 -59013 -39106 25304 54276 8750 -54506 -18572 11060
33298 -39235 25236 38961 16406 -18226 50035 -65878 50949 37766
65210 -40402 35719 -32009 -24137 48280 -49983 58445 869 11475
23468 -42381 4961 37421 -38993 13351 -58290 58325 -67597 -11433
3569 -7933 65613 66151 52520 -57015 46797 39880 -8690 49233
64165 -54750 17105 58857 22742 -57155 -2155 -43801 -11691 -28408
-36111 -54227 -53562 68963 58950 2956 5553 62051 44024 65757
52464 20277 -1300 10390 39120 -7852 56050 -7017 21435 -10113
-12769 -63638 -9823 -14317 -47320 25924 -22777 40878 46189 -61155
59267 6360 50542 -40266 -2325 1860 15859 -28673 -57457 7819
32735 -8631 23087 -8011 51356 967 -8404 25462 69376 -64917
-41342 44677 43683 25054 25932 -10727 -67246 11940 46848 -12979
-44497 -68319 -51150 68290 -53913 -29255 -225 -17438 34322 33092
67387 60399 -16021 7857 43165 -42390 70160 -15398 -27252 10835
-8632 38242 56377 41957 -14235 17219 -13077 44180 -17617 64076
55065 64266 -25747 -52987 9061 34895 -26827 -9741 -29198 66636
-27519 75383 22803 48397 68343 13440 -12985 71712 16510 38120
47291 -10818 12159 11950 -11780 -14435 -43226 39348 48815 -2927
-29042 30852 74263 22134 46298 21983 68473 49583 -10166 55796
57006 -2167 6855 -29605 16431 51076 50810 -24742 -63719 -40295
52651 -66980 -29534 50003 -8769 34797 60373 22028 -2073 -4687
-61328 -17471 16592 -46820 -61236 -42574 8241 -54419 38345 12308
-14029 31298 -42854 -9462 2865 38160 -30389 -6713 -765 27898
15447 -53168 63179 24421 -20789 44920 -28006 48408 -32601 12923
-47359 46192 -38805 66840 7463 30384 62564 -26387 56265 30554
-21647 71400 60160 -54166 -6660 -6663 18722 28056 24296 -49094
68944 64419 12314 -21190 23751 25563 14217 9769 24571 29599
1386 -21687 -43334 74335 54995 50062 -65555 -41018 -69909 36737
-44283 -45706 67987 -12347 -38426 -21130 -61690 -7125 -12987 14699
15205 -53736 65154 -41318 -32999 7698 -41525 -54475 -6979 -44282
-17317 65009 46896 5258 -40445 48475 20389 49655 -25402 71525
8460 -31861 -67078 41843 17787 -38457 48757 46623 -35733 -14861
49202 24802 -22268 -30432 -8283 -274 -45103 11855 7498 39488
40794 -36283 18301 708 -25784 -6438 7856 -2536 27222 65751
14855 -39045 -40244 -24140 16274 18169 25847 21283 -63862 31546
-71806 -42131 2226 -15248 1744 40869 1884 -20158 54088 64462
-69729 43655 -58468 23401 59420 8188 -54238 -41222 -47614 -5604
-398 -11528 40951 -1287 -31921 -62778 -1581 -27750 -60782 -61013
9622 59751 -20921 16550 44649 -53491 38737 -60431 -37176 8367
-45799 18877 27084 46168 52849 41489 -3122 45873 57688 -36290
-1773 29364 24300 60080 42628 -31916 51769 -22156 50027 18317
47761 29376 30692 64160 14017 -39414 1969 -55220 -54720 5169
9830 36037 24029 27950 6559 -49498 -24404 -2656 65514 66502
46045 -32298 25190 -43924 -54422 56941 40117 15912 -13157 -62427
-23993 65132 42134 55778 -1541 -27348 7245 -45010 59464 -14250
-8648 73547 -21867 19233 54706 55877 -57553 29302 20287 -35182
60803 11262 -2831 -53402 41226 54980 33870 -2757 21606 66624
-29921 -21515 -58071 -57609 -1879 9655 -70944 -62781 -51777 -39037
67809 -41251 57769 3585 52718 -66641 -9523 -70030 6062 43325
65521 -28305 -47719 -48873 65182 33738 -63460 -8924 -57463 -6122
67785 -48244 11694 24385 -11113 -29502 -14696 47565 60905 -57313
46845 -41277 17004 48842 -31668 30771 33917 -38296 27520 38357
-37332 49001 41551 -26734 49317 -40719 -27644 67858 61580 49088
16616 -6176 -13384 64519 4370 3875 -32461 33598 11168 -62240
62458 9974 36455 34003 12816 -22197 73731 -48209 58054 -64857
-39034 58675 -26687 15568 41165 14669 -36889 -31612 -2438 -56399
-24271 19288 -41313 -43139 -13186 44108 16923 -28890 53217 -8615
-48783 55144 72426 -49450 -32046 48661 3705 26036 -25140 -14554
-24608 -56192 -24906 -66328 -50620 -20801 -43275 -51359 26139 -30848
23041 1928 22588 -26411 -23892 -58630 52803 37139 -26488 2881
-39274 26726 68117 -292 22864 44830 -46564 54092 52554 -3403
24868 -40849 20593 65896 5676 25302 22201 23645 -41453 -14024
29643 39497 35795 21534 -8855 -53836 10429 -7438 54924 54807
32868 44979 55549 -1323 1901 -53714 62626 45693 20127 -40307
33774 60370 36680 39919 18855 11855 42482 -52290 47387 -60369
51575 28293 47352 -33152 15266 -52715 -49632 14996 38979 17241
29013 32847 -28466 -30207 -3211 -65523 3880 -47620 -42843 5505
-13724 -20579 -14086 1933 63983 3164 -4595 20424 61215 -49162
27370 -58423 -23055 1235 -20498 39425 -14703 34750 -32105 -44043
-56153 -61048 -63754 55910 8996 13728 -24817 25164 6038 -15698
55879 27227 56521 -48550 38880 -2439 17066 -30434 52601 -30155
29704 50185 -28688 58364 -6932 73205 34403 28945 3900 31927
2668 15779 48075 -6177 -33470 52936 -10674 59864 -45155 -6021
-19251 -55758 -25552 -26886 31849 -49008 -44815 57937 50092 23051
68098 -33128 -14484 11236 -48316 69492 51982 -6180 40034 -1422
-60614 5210 26602 41644 -28059 40313 60620 49013 -12127 70962
-58803 -45147 1742 870 -40714 -61955 -21886 12364 69486 36740
3444 25911 423625 -622229 -8835 -633988 -36089 17237 -619144 -24164
33501 -3983 -36819 -59967 14955 32072 8944 -58585 -49731 -43439
-34699 -27428 33351 -23673 46234 -24368 54977 48925 30647 -13017
29789 -12561 -44604 55383 46207 -40503 -48581 -33122 52043 -39249
62434 25601 18372 -69284 -10720 -39231 -14998 -39712 451 67839
13144 -39205 50628 44098 -46695 32517 -56581 613 -18088 15114
-35603 -48069 63054 -66210 58729 -39958 -45042 70771 26506 3468
48331 -28171 18672 16758 -67528 16986 -43408 -46212 -22816 -36767
24424 28962 -424 -51536 52130 -22904 8847 73485 -50072 59205
43771 52583 -41845 -18223 -6603 -14749 2338 42957 17146 49790
61251 58654 41535 -45342 51423 33037 -8810 -11248 11470 15687
-10813 49324 59328 -4160 39640 63026 -30289 15129 29814 22759
-33352 37792 65638 58747 45461 48167 -49036 39624 45873 16080
-64960 -49879 -15571 42029 -7025 43863 25636 9076 14914 34423
-64304 64369 -8941 4450 34063 3995 34803 16642 4561 -15905
12192 14959 35761 9994 -27546 22518 21997 23345 21010 -47427
-119 -54264 27572 48671 41783 -37988 -22995 46161 14678 -28514
50274 -20033 -9821 18026 24877 39055 47762 67245 -27927 43345
-49243 38987 24982 30947 -31816 -33030 46504 6781 65735 -779
37674 -38861 37426 35613 60045 -55132 55127 -8171 -59597 -5637
47107 2938 47985 -52798 -8692 33002 -38402 -6754 -40080 -17195
-51690 -64277 43945 -36997 3521 41674 10846 -37889 -38803 -29587
55103 34588 -36598 39709 61354 16943 42772 -5192 -34223 12440
-66914 -34250 -25190 -20545 -39401 -17475 45541 -38749 13953 -29196
43947 25905 1309 13966 20399 -20355 14176 -6300 20831 -4472
-2257 68013 -29727 316 68461 -26634 53757 47918 -18774 21299
12479 17389 -51775 45616 -14689 24394 22418 4998 -51820 -39176
-20976 -10752 -234 41465 -37170 -15527 31055 -41896 18773 -55255
-49536 60722 -7030 34476 24049 46158 27113 4953 35462 -60619
24040 -69266 21403 44112 70316 18744 -57693 8568 -28561 -70619
-44246 -26462 -56240 -29579 -10439 -4288 -53804 7605 -34874 55139
17352 43367 415 40483 17668 -40513 43468 -2177 36772 -76818
-24302 -2800 -19781 43440 -34249 18437 -14027 -29463 -31071 -28369
-44568 14847 30948 -33676 16827 -2575 60977 30748 -28539 -30478
-22771 -31690 17883 49105 -28505 -47554 42030 31167 -55879 61554
-70835 -4788 21729 -24904 -61019 64296 -14982 -56281 9089 19056
37949 -14302 49172 -60551 19692 -37497 13249 -34893 50704 63310
26219 21087 -596 -23778 -3386 -30031 51999 -14856 -64657 7726
35901 48958 -48405 -17565 18327 -52953 38051 -24556 15536 -2920
54779 -74383 -9485 -13755 -11444 -19125 -8487 42441 224 -49022
64153 24859 26132 -62412 37253 62896 -47824 -22882 4667 -17645
40723 -32316 8766 18537 39800 35747 210 -60240 53792 -58367
-55281 2014 65840 -24525 71780 -64471 -23550 39177 -20463 -44694
-66786 49783 3530 -1292 59334 60594 -30126 16251 -38 51453
29967 35720 51197 -9631 3172 -44115 -29267 28746 26380 38248
43392 -69875 59565 16764 -39102 30451 -50114 5294 66557 -70241
-15978 25027 -18204 -30207 21840 -29028 -47110 56914 56316 19509
32825 14865 -63780 -16250 -23309 31468 14626 -18708 -39214 18562
-48861 8037 -27388 -33439 -50638 -62815 34224 -20039 42833 -14597
-56777 44546 -53980 48045 17487 -45358 68363 -39333 -52525 -16458
-634851 91439 -10990 -153678 -600345 34268 -58072 40728 31720 -672744
-51640 -2684 66638 -1774 -10854 -20340 -30007 52419 34857 -27842
15565 -25614 -21713 -66430 7992 -44750 -35320 -48927 35201 -11101
64577 -51230 -33035 8734 10425 -6533 6308 -18317 -34990 65035
10689 -19443 32890 7605 -843 52399 -71315 4633 42102 71098
-26512 -39862 -47407 -648 -33731 -34957 -67812 21741 -45980 45884
-41354 -38299 -21003 60970 41124 32916 -53869 -8517 -45916 36030
-70804 37170 61240 -37211 -12414 -52408 59380 -53506 10513 -15798
-25098 -37851 48349 25346 62344 -29231 41294 -58818 -7112 -11553
20950 14177 -1474 63227 -32226 49358 25847 38540 -37642 24917
-30836 -24327 -57073 4238 -39592 -14030 15085 -27618 19938 20340
49993 67450 23626 21828 -15422 -11580 27692 -17014 60651 50801
56444 -28378 -20221 8477 56915 27647 27409 -32485 -13456 -34348
-18243 -16603 -52871 998 45446 23339 -8547 33228 45602 -19273
-36647 -36784 -16670 35786 50464 -15754 -17276 -30247 4900 60158
20079 -44430 14408 -57130 -16545 45608 56554 -29410 31119 -48486
-4720 27228 28589 20664 26796 36986 61125 12963 45186 29361
-65968 -14337 73776 -11421 14540 43236 33402 58711 48534 44854
36036 45046 42624 55056 50213 43719 -2519 57673 4417 23312
18248 36432 6022 3596 62568 31898 36316 -57664 47985 -3233
388 -50138 -1024 50475 -32441 49980 15641 -24432 57731 44249
15314 8660 8412 -18413 -54144 -34030 73038 55386 6561 1883
-45995 16531 24171 11860 38837 -52713 -62951 56225 -56925 51290
-59870 22138 -53955 17862 19334 -51286 -31761 -5017 -9013 39063
-51990 66387 70634 -38241 -19472 -50500 -5218 33768 -32326 -17675
31257 59570 -20405 -4124 -22593 -64488 -26261 -70208 -20587 8844
72949 51170 26278 60810 29475 2270 -17644 8974 32185 34108
12870 62990 56605 -42097 53697 -38912 -7493 -66702 17941 65713
-33472 -11248 17078 63310 56067 -43941 68340 35061 10599 -14364
46287 13064 -21882 63318 -23809 47280 33122 12179 36446 -66919
12048 -65954 44360 64702 -58337 69243 12692 -69876 -52027 51887
16433 52539 64077 4307 22937 36455 -18443 -66338 33009 63049
12332 -44495 19957 -65600 57998 13784 31497 -53505 -41739 -6409
19655 23619 1862 -59680 1972 5949 43043 -12378 -13904 -37252
40611 5496 -3848 -55208 5130 -74183 -63602 -899 -27992 53385
-52307 -1504 -59354 -38286 25570 -35355 52217 -11589 -2177 6972
-20372 -35807 65730 -34747 35093 40821 -40933 50761 -24378 42829
-17201 77958 -51543 51116 -13143 52445 -42555 30108 7476 53523
55298 20913 -50745 -24214 -36492 -66127 18116 -32318 42156 -6779
-12473 -52350 -53186 86 -50754 -1449 -48965 4027 16909 -65757
12199 43316 -35289 46644 54513 -27241 -55676 57638 60899 -1408
-34591 -64832 -27408 -40913 20059 -16682 62268 23584 -49981 -43468
51727 -35552 -51717 45824 60831 11333 -44665 -8709 18312 37831
-37804 29776 5628 -14733 -13187 -2569 63840 -39024 -54393 10420
-66692 -36160 31601 62554 22558 -38872 -70025 -58895 55458 25535
-20511 49537 -45861 191 22470 1442 60733 -59833 27788 65350
-70523 29794 -47789 65346 22527 -4965 -14184 -62252 65822 636
-13756 -37820 -51712 -10113 -6638 4186 74250 -29792 -25263 49924
30354 -50040 -57142 1691 57660 60333 11880 71246 44589 15465
39752 -43757 -4312 -1645 -6026 -69033 -61297 -33637 -39683 7370
8341 -20044 -49664 -23812 46238 -2713 -47359 52491 2630 8128
-60993 -12028 42899 49752 26559 15836 19591 -30630 -34970 73748
69434 -1278 -2083 18228 44864 -1358 -46568 -43139 70070 50908
-62865 12090 38500 -28154 -48940 11341 -66984 -12665 -24890 72575
52423 24361 34482 -63007 62924 60575 74829 -54112 -48086 61742
-31002 -5705 15661 -20495 -33184 11174 -41516 60049 9628 -11045
11689 25727 27162 -13296 -65487 43813 6195 20797 -19316 -7118
-25346 14016 -66625 10284 -56618 -47772 -42823 44701 7443 -8447
-27329 46965 -51967 -24992 58667 21279 61909 -5543 76006 1909
-56070 -37796 -58773 -41862 54518 28564 19859 -48258 -62184 36393
29512 -17003 -11434 61823 30499 8020 11886 -54010 -60745 60246
-8517 18419 -44323 23105 2026 -41325 -31414 33131 34771 -7843
32081 58070 -42210 -15604 26813 34935 68273 38846 -57273 5807
-5088 63584 26085 -37127 44961 -13886 39715 -36379 29384 -57602
68241 73702 -60515 -40745 35910 13152 67231 684 9009 -28850
50320 -34977 -16989 -27714 -46553 17763 -33710 9852 30742 66771
34636 19052 33314 23070 61376 3017 36060 5996 2635 -12332
-12023 -12326 64823 65359 3039 -11118 -3611 5887 -56961 37710
47557 16322 43459 -52753 29164 -46708 -15065 4307 7392 -32311
29224 56668 49825 37792 58970 -42681 -12852 -4944 36740 -66150
-10276 -40663 -43243 37334 42307 -15461 14220 23918 20318 34143
-32397 6851 24848 -10109 -69017 29163 22258 -42171 34929 -11747
10657 -56988 8183 60149 -44365 40703 -40865 -40154 3320 -29478
-7467 -51550 -35070 59291 -42498 69732 -55591 21023 7608 -69449
-61100 -65232 21840 -33597 -8434 -30879 -15719 -11194 38264 -49504
56256 -27465 -48299 -5916 13255 29004 18845 58589 62478 -37185
52405 -2395 -42689 -63381 -56015 19551 -4818 -31102 -61450 3932
12649 -18869 -39754 57160 19020 12570 405 65384 28571 21752
-33091 -51165 46071 -58336 -44768 39362 -58805 61265 -13897 68699
46399 28414 -25759 -21827 -7257 12481 -20003 65641 971 12253
-46716 -880 -18497 15052 10833 21316 27582 -35912 -26255 43889
-49562 -9138 -58869 45490 28702 -51929 583 -8572 15941 2248
-63155 -54745 3311 13545 1758 17004 74057 27467 72596 -43738
-56200 -48390 -51701 47272 -627 -38890 1053 63548 28730 -51949
46148 7834 -43872 34529 15107 -20612 15421 44731 -59559 -44351
10639 -26987 -39647 68256 -19839 20969 31457 -56169 -65178 52064
67305 -27049 33335 48574 -38227 24062 -30939 -6561 65136 -57241
-15355 -3064 7312 33772 18137 -40683 67437 -21841 13883 -21659
-67255 63027 -59148 59306 -34372 -63944 13727 60917 -26186 -18653
62435 39524 24558 -15566 -61377 40850 -64619 -30612 5029 24269
32378 -16798 26599 35178 72505 57575 -36162 -44681 -49399 19266
-18453 -54197 12018 -32374 -32181 3616 -56341 -5521 -25638 -11892
65689 24008 57673 53991 65692 14608 45985 48994 28521 44980
14596 8274 35331 -2364 45746 -42326 14612 19285 -21970 -11226
17069 59318 4414 -31321 -24678 42294 -18341 47261 26795 64867
-3922 -62693 -10585 27011 48437 27287 17378 -20732 -58120 27291
-52015 29962 -26352 -33507 -24486 12917 -3494 -36622 57125 -10649
-47868 -11907 67737 64945 7842 -33139 17587 11366 -7428 -41388
57711 -6553 -23961 62202 42638 -52666 14127 -51822 -31080 852
-9244 -5146 -37503 5308 35036 47618 -26883 -41528 52284 -21535
-5408 -21173 -20899 -11094 -54060 -50434 -47991 68812 35798 41644
52633 59512 -36674 -34879 32637 -9157 -43360 54943 255 -4228
11361 -44682 43517 -24083 -42938 73952 -63117 -22778 21109 38658
47688 14303 -2444 -77 -20081 -57829 17199 -1708 -41217 12466
-61819 20361 -17433 -37683 -52124 29222 39773 23448 35647 60337
4169 40499 -59602 23730 -32849 27153 -42038 13998 55855 -25543
-51521 -62625 40490 -29113 -43255 56969 -23063 23435 43356 -27249
-92 -50970 -6341 -11295 33704 -49846 -6026 -40298 -27262 44767
31550 2412 20541 -3956 5643 -56179 -58544 267 27347 -65375
-12911 -4147 20683 29312 19337 -59962 16787 -12261 40185 -63917
-20917 35079 8313 6576 -27675 46940 39074 -27184 21307 -4120
-33008 -56638 -46518 -22735 17500 -18135 49099 64933 -44591 -9174
31686 2371 46292 -56383 -11466 -23947 -21988 49011 71946 -54493
-12190 62164 -33246 -58412 -11456 -7573 7596 -7898 -44012 -3361
5206 -49372 11019 38427 13131 -53285 14548 15956 -8909 -37477
-9291 -52863 -55269 -50979 44567 -46820 59970 -69402 24416 38670
-44797 20902 66844 -77129 53849 -654343 -532674 52155 -24867 68010
-54079 -46401 -25564 -38833 14582 -11169 -58558 -171 -9835 -52050
52938 34838 -20290 49637 11789 -55272 -10075 60603 58899 19226
11671 -12201 -48504 37451 -15410 45166 38485 21461 18087 17274
63425 43120 63522 33220 -23846 8774 -51565 -67095 36986 49184
-39789 -25733 -49570 -54279 766 -33488 23758 65094 36279 -43921
270 -19521 -31882 68488 -26494 -18775 69153 -66715 -52138 56146
-10955 35940 68616 48375 14113 16175 -66258 3563 -18263 7312
23830 17308 -36390 -23274 -19659 -18446 -40338 -63405 45892 20911
6377 54607 12889 4481 -15166 -29366 -2379 -22335 -31441 68621
23377 -50119 52874 39333 68754 25854 30212 -9651 57996 -2764
35216 -13474 -20259 -747 33611 -68785 3290 22811 -4945 40818
8986 21036 -56318 -31483 -6484 818 -6322 -64918 66595 65897
-51161 -25452 -58974 65275 40185 -63324 13353 60758 -32032 39059
31559 -13204 -61467 -7294 51590 65091 52962 -21963 20732 65320
-9111 54757 15757 -11865 -52746 -51253 36215 19306 -33823 18979
66930 -40956 -26109 -45215 -12102 -8786 -23054 21244 46358 12378
10843 -34588 14806 25993 -47433 33402 -46504 -18953 4260 -25181
-60176 -41018 41321 16821 48814 65160 67962 23194 -23343 48793
68653 57277 -54189 27614 67122 44477 -47928 44682 -36752 24020
-13277 -9765 -22389 18631 1587 -28082 -75532 81375 -40487 -58772
23342 -48943 -12551 -67223 16059 -45928 -15877 46784 -7868 -15313
-15485 51759 33418 -71274 31284 -19567 64834 -25226 -28919 -51571
-28719 73993 23582 -9857 43539 -66556 -53992 67454 41311 37405
-39095 20214 32318 -21888 44788 44897 -28634 -6694 -36861 4292
-40955 32178 7545 -42288 22663 -9100 -58968 45184 -27991 24273
8203 -7271 -50102 -10885 -54359 51553 -51657 4704 20716 -51244
61267 20977 29160 11207 -22738 40699 4679 10976 40347 -31042
51976 -21562 -9366 -52916 -49018 67195 59848 20287 -47509 37839
-45114 77341 -25368 -11171 -3808 -50577 43656 -16956 70160 51222
-19921 1040 77076 47050 -30392 -14475 -58870 80517 -32024 62430
-23522 -13431 15519 27478 -5106 -7427 9090 -16863 -21979 418
-17635 20090 -39816 -23812 -43257 -28675 -55628 2390 50409 -13926
57602 -11346 -26516 -26645 -4487 67436 3503 -51004 -7312 -5147
29150 -1700 26100 -11147 -11638 64067 -13991 -20539 7147 36606
14289 35024 54548 50486 19264 -4966 50022 17674 -27813 71131
11269 10666 17991 -56445 57 -51945 -18420 22589 -2872 -28742
-31906 -30145 -23617 32848 18946 36486 62837 41866 -34833 -46216
21073 12441 -36721 -55748 30343 19772 29854 23631 -40855 -57878
-11617 6376 5449 -65863 -29283 -5880 66478 -58626 -53994 15963
1442 44296 52277 58722 -36773 31758 28846 34972 -10932 -35665
61766 53478 59251 44347 17653 -44629 4821 2107 -60559 -8813
-46152 69865 -59711 57527 -15564 11425 33755 6966 57437 -69913
-54950 49450 -41773 -32513 2959 -49798 12151 -24792 -41305 60855
27428 26577 -52065 21690 37467 -4645 71046 -15805 -60586 -31132
60148 -48637 21635 66643 -2998 -25008 -29499 52772 7750 5365
-65682 29146 -1779 -52085 -32528 -19836 44429 21098 -44411 7737
5325 50144 -46318 -42341 -16982 64035 -25231 -10324 46446 -35407
-20048 6829 -59031 61969 65364 -69311 -58720 35342 14205 -58818
-65801 -63994 55770 44327 18672 -69893 -59576 13321 60626 36188
51480 8213 77775 17150 -73705 35413 64344 38907 -44311 -11580
19457 -21547 33877 23724 70505 26943 16585 35048 35033 -9423
53773 41018 31762 29959 62044 1280 79880 58501 12472 -103467
43143 -61957 -35356 -71085 -6609 -20524 -61827 6894 -64090 4301
-37111 -25180 -54573 -32933 63051 -29813 -38495 59344 33566 -35917
17680 35544 36320 18727 56310 18486 -7414 -60588 -64571 35400
28614 70313 -4340 28753 -34796 -17553 77083 30832 5555 -59426
13018 -47083 -49358 -58426 53903 15709 -37791 -41527 -61339 -47400
-17744 -52261 -26320 -47057 46632 25880 31196 -16711 -30112 -54251
-8392 -3432 52712 14697 68961 -9756 11072 -4965 -43288 -44032
-70581 -33983 15445 -54987 46364 11004 -39603 32316 -53859 -51233
3225 -14305 -67726 -35052 -33848 37747 -38214 41131 -8891 -4773
-42937 34254 -41072 49165 30915 -56344 -19585 71430 67325 -35678
-2514 -35374 59551 29500 -12403 -5361 71081 39667 46186 -3312
30207 44611 48984 33066 -40427 -44075 40593 -35854 27739 66663
30869 18208 24425 -41467 -28210 37611 -47768 34576 -21000 57955
54877 -15373 30436 54844 -57845 15041 43983 4780 52102 49684
627 44815 -13152 24356 -968 -51348 -43055 -3879 64699 58697
1125 61980 26856 49842 41440 51661 -28331 -60858 -6213 -52658
50472 52099 -50843 27168 54255 37863 -21050 -50194 -70755 2223
-8492 100433 -62728 19746 76251 16673 -79213 -46023 -31439 -19319
346 20656 4426 44270 15750 -20254 48170 62709 -5704 18452
-67385 -38357 1763 -47810 53536 40046 -16105 18120 -53561 -67954
47190 39031 38381 -19710 -17102 42216 -49976 -58104 26833 16464
-51040 -65979 -45065 56774 -61047 48290 52349 -68831 64206 -64550
-14846 -62835 -34569 62052 64504 -54966 -19476 35651 133 50729
58122 -17420 -22508 56001 -35721 17051 35094 42250 -22097 62225
8125 -21369 24344 40726 -16714 41426 17130 -30661 -13684 57867
64792 39059 11753 24771 5136 -38974 18119 102 68911 33689
3863 73997 -62915 7354 49438 725 75459 -18056 68065 53142
51947 -49202 29065 -26339 34701 -32773 -24814 34956 26489 44009
68181 -7274 74889 -4686 56250 -60074 -1640 -48707 72726 66724
-68162 -51577 -51393 -594 1589 40247 66080 -15667 -3641 -49664
29751 -7084 53087 57826 -31277 35321 66962 -47208 -32104 -32617
-2280 63689 48736 38015 -55751 -17458 41093 12260 5370 -38000
59894 66720 -161 67937 -23332 -31427 -56002 1971 21009 36227
66127 58759 62091 -33154 17691 54592 -67466 32519 -69277 41188
-2526 -4875 -59563 52725 -4341 26131 -2257 -47187 -51745 -68270
52793 26004 -4700 33951 64372 55395 39326 -53424 31794 -37869
29934 -44982 2274 10384 21558 34874 -590 -24420 31574 45672
-14271 -48083 -33811 44766 -58676 41953 -66128 4564 -30834 4701
-59685 28865 22166 51748 63659 -56591 50878 -71495 47051 61325
50434 -45422 -26053 -15238 19625 -26188 9023 60609 67782 -21580
9629 40134 -31592 34032 42393 28896 13880 70930 -49588 -24670
64796 -47451 -17899 20422 -13677 -54538 12877 -18299 -69815 53177
21541 38537 40006 -54976 -13748 59185 63666 -20568 -56076 8352
27947 55199 -20860 58410 -64541 43419 35134 51517 -22801 65230
-47365 57438 39973 34274 -52774 60888 -21223 -73521 -5380 -26628
-71159 -62476 40067 4213 15332 -33570 16317 -39322 67662 -65070
17247 45176 32915 33607 7184 -36425 20743 -66227 -43631 -3118
-41737 -17299 -25482 -44958 -35309 -4978 -21144 -29499 -53306 -12728
25812 -58044 80283 -38949 -32647 88544 -17133 -27960 26613 22697
-54719 45686 9979 -58450 -16381 45633 13078 -22826 11020 -24113
-32045 -14751 -39882 29530 49216 -30513 -5838 73183 21608 66666
26544 -21226 -42103 -56037 -4413 -22841 5359 -41634 -27026 69907
65080 -46054 -16979 1914 -2820 18582 57989 -3974 37434 59868
55002 31323 -1862 13035 -60093 -54390 60708 -46596 -47901 15590
-57086 35170 18905 38354 -49733 -37458 -10594 -51597 -64897 22688
44635 47133 -16498 22479 1681 24160 -40935 -10127 -49659 2455
13170 -46302 -26085 17344 -48173 15184 -19324 15825 -34866 -2875
-47879 38118 -23093 -26134 23196 9822 -632 14829 24301 -4583
18159 -25118 42327 -23485 -27245 65393 62770 -53190 -54284 -54123
19440 29339 27384 62553 -8823 27182 -37452 -6412 -51663 -53392
-65985 3900 -1157 -19659 43890 -52141 -17407 -19285 41622 18483
-22679 57865 -49721 -29876 16591 -38019 44393 -47914 -23537 -35487
-30591 12122 -1289 18326 14781 15353 -23134 -53863 22040 -20176
30155 32348 -55651 60140 55174 -23855 10466 8573 -59246 26187
-12142 16605 28644 58311 33489 -16864 -32510 45218 -5559 54191
-38345 53634 7238 45046 -26576 12386 55013 25173 -21268 8406
-11893 6316 49716 -41400 61213 38238 -39384 -29771 -20011 50994
-40166 -21479 52584 -604 44826 42877 -23556 17992 -7469 63544
35055 5152 -57134 -10927 14877 102 15732 -59772 -51162 -9205
3619 3987 15496 23033 8477 -18079 72147 66747 29654 -40454
-69979 -53715 41084 46775 -61399 -39772 -14873 -13195 64276 -46398
-18264 -55334 15013 -12827 55828 -55067 -42711 -52547 -45200 -16560
-64519 -2304 -34527 8937 -33550 32579 12635 -6362 -51438 -30265
38523 -56281 35148 -59358 65901 -33972 7743 44034 76131 23720
22114 66462 -21205 -37588 -43299 -63454 -44856 25848 -6757 42802
-70196 18725 -5900 -5208 -34548 -3946 224 14549 15573 -21587
34748 -26657 56033 -42476 51389 54607 11460 -5903 -4423 22462
-980 7502 2829 -24143 -44791 -25352 56472 -7718 738 22728
12869 45525 -16316 53345 -51158 -15664 -55408 -54806 -22558 12784
-51740 47093 64966 -29687 -7560 14584 -29909 -21767 -21003 -56484
-55984 46182 63140 55373 -29924 64951 -6113 7855 -58209 30574
-8094 62973 14738 -33200 3993 7228 37386 -7529 -33954 -62950
32475 -55026 -7010 -29496 -55998 -33784 -51651 -24285 -5674 49937
-1118 18423 -54917 -32744 9551 -13490 -5636 47377 55091 48796
7666 34173 53638 44109 -36179 35282 -19054 -13290 -17845 -33882
-9270 -61966 29184 -64240 -41961 46608 19831 55530 6031 52553
-68088 -63729 18455 12363 -47532 23527 -67700 19216 -3769 11905
63860 -16735 72413 75351 62759 -6045 -42566 55743 58168 -44518
-18698 35290 66699 12798 24631 -4806 59968 -55392 -4483 -64690
-11859 2571 70086 26039 -32161 -5171 -19774 6337 20845 -56092
-70202 -18559 9195 -47558 -18150 -55658 31373 -20121 28062 68594
-16193 73571 56615 -44054 37244 9081 54957 -43689 -59631 78102
4999 20939 29418 27191 64384 12245 -31972 1257 -43519 -53512
-36651 48603 -62956 49082 -44709 55393 46848 -34227 -5214 -58528
-47648 -43416 18914 76479 734 -13389 -5108 -30672 -3813 -22891
-5829 81109 68476 -172574 -319590 -17699 -501097 24388 11622 -589184
-42736 7346 57407 -2404 52841 -37698 50208 27362 -47457 9694
68133 4851 -14106 -11877 -5952 -51065 22849 37805 -60713 22196
23657 9274 -14195 -44845 2410 5219 -32644 -43925 12765 -44135
47364 -10885 -16611 4993 22012 -18274 57388 192 -34563 39752
-21439 -63993 -22094 62523 -30412 22982 24698 59639 19516 -41291
-47194 -3796 15824 53346 16342 -4337 -3466 -27920 65935 -24857
12560 50746 -56414 45007 -14984 -13746 -32870 35801 64268 4117
-51565 15385 14636 46995 -56759 53148 39559 -62782 10505 -55538
-52360 58800 9051 -61949 -30573 862 -51457 52684 25370 66159
-19825 21873 42867 -46345 -21680 -65888 27426 58487 -22383 -32235
-14609 -31827 35554 -42945 8051 -60763 -34102 -59604 -30396 75793
-9881 -47004 -14503 -39751 -37072 -15235 -2284 34698 15458 22874
34906 -14705 64790 -68013 -72463 16348 20974 13447 -7686 -18580
-9583 60845 35460 18144 -2268 -52732 62923 41768 -67331 -54366
-48719 -23262 43724 -6778 34258 -10273 65837 -41235 53068 -70981
15469 21113 -22119 15218 32771 -28707 -47116 30988 64758 61954
55062 -61516 48999 26992 -28728 36204 8527 25464 10102 -53842
25724 59911 -13856 -21723 -8174 -6649 5126 -10510 27241 3379
74118 27482 31206 7989 12938 18779 -10710 -35882 42208 57742
69265 15951 -29135 -31362 26759 -11134 44459 37609 -58948 64992
-15774 56168 -3325 42385 -29143 -38374 -55632 -3191 3302 50000
51581 27184 53071 25377 8225 -3808 25494 13677 -45490 -36353
-44757 31427 -55334 -25577 8499 39477 16718 44920 -48317 22303
7611 -17380 -8879 -62957 30371 7039 -25816 69023 32761 45559
-7021 21923 62279 810 49591 -67139 65702 -37572 -28075 -4563
75065 -15711 60615 52169 -35257 22226 63489 -5932 38937 -22731
32542 -13872 27382 59232 1493 39593 32221 70305 4471 65408
25973 45377 7554 -54157 37218 -18264 67292 -10485 59317 -34380
12116 -38834 -50089 44954 64879 37929 -1226 -38048 27350 56067
-64233 29766 62392 -26146 55625 -43693 6848 -48321 -52396 -2385
10061 -8040 52520 74150 60504 -74364 -54281 -2789 -51925 43878
-58913 -25896 -64352 56576 -27371 26381 3266 26301 -63712 -11994
61728 -17153 33722 -47137 -44879 34287 61359 -41370 16226 -56806
63071 68664 35958 1253 46449 9254 39468 -12096 -52498 -61580
-26153 36495 42950 26882 32785 7787 -9776 35446 57487 -13735
15193 -21619 -25331 -38125 -37526 -42414 -43579 5382 25601 45347
-18855 14046 -53861 7865 36975 -23207 -35161 32778 65974 -13874
32559 -117 -39831 -20828 60972 37548 13815 -42267 57722 -18499
45638 61855 -1254 -9536 -31543 12141 -2690 67304 -47756 -580
-47083 1602 72999 -68610 25071 24936 -18819 16227 72527 -936
31655 67419 13561 -18702 -5702 -12855 54048 63776 -9310 -61134
18992 3488 51019 4591 29172 34355 19069 -41364 -59672 66499
-25981 -53650 -27995 -13028 9629 38615 3532 45819 -23410 49240
48717 1823 -29478 -29207 -31594 62197 52847 -68663 -9282 10534
-793 -36580 -42291 -13092 21583 -13055 -16473 -38908 34139 -26889
33295 -20312 9441 -34204 13308 49498 -61306 -18069 -41141 -27725
-31407 -67292 46100 -43805 16461 55038 44363 -16313 -39585 54109
-27930 -12012 -15467 27739 7578 -65076 -64792 -1373 10367 -40063
-325 -49223 -53226 -32505 48392 69159 -36286 66988 62800 -68761
-37478 -13376 -1976 45723 32791 17830 6597 1078 59837 76031
-34420 57175 -13691 -32748 -23960 -57926 3382 20087 -68282 62971
-40876 35850 -31903 -39416 -63989 -44895 35970 47146 -50641 -4823
-26312 34280 -21863 -4899 57240 -54218 23836 29607 -76045 -71521
-63497 -1143 -47363 -29695 -64773 -39540 -63004 -5585 -50468 68703
-1456 65526 17824 -59604 55185 55388 56105 -13516 24634 -41198
-41340 46653 39605 58786 9523 -76336 -55686 3804 6074 3879
-49521 -39962 -4923 -28223 7116 -25978 66806 56934 -59259 64426
-52145 -32388 44736 37775 -39648 -53807 55298 20097 -56832 -45394
-22843 -55444 -36838 15004 59298 -58557 -4232 -16239 18495 53510
-8767 56597 -49768 -39175 35476 31884 54343 5414 -2482 17138
59015 10433 18460 54679 -17455 29199 -732 -46902 -38132 -68088
40954 -57142 45714 62188 -66078 6296 -4485 -18607 -4993 35262
-53892 47849 12636 25015 -32097 12597 -50294 -33273 -3175 -64110
16823 39319 6296 -25646 13862 6664 54261 60694 28213 -57079
-16549 26823 -40144 -535 -70149 -25062 -53866 -26252 7896 12899
20192 29911 49041 17350 52655 41787 61967 -49127 72594 -31342
-6396 9949 -14482 28395 -35145 35657 -44276 246 -33545 -45091
29938 -40372 34113 67256 61072 -69815 2922 -43087 59888 -22968
11886 -70960 -36032 -41273 -38659 -40494 -16099 65905 7202 45424
32415 -21971 -1171 -274 -11808 31160 62784 -1992 31190 29366
47097 47415 -40804 30289 -8076 23336 39747 -8777 -38112 -7411
24685 65302 -1486 62893 29490 -68310 -12962 -22237 -44388 -8509
-12053 23233 17074 -47650 -8477 51774 -48701 -41708 -17509 -61310
12170 -53225 72669 15697 52163 52882 22258 5507 -34210 1339
-19291 49507 -5837 -22160 6183 8067 44505 18353 40768 31605
36952 13794 -32243 11467 -36202 -12222 29646 -35376 -5051 -40202
4481 -19512 51376 53170 29341 28520 77501 34750 -47316 -21870
39132 15480 35140 -10239 -21392 13888 -31770 -18317 9742 -77237
38808 66957 62834 18475 56237 44512 -31880 42914 65928 15202
44444 -1821 45978 -57502 -26921 -35549 57532 16442 42463 32033
-36140 48382 -14070 25236 29227 14677 21410 -8629 7187 45057
-45092 -3051 65164 3040 -37908 -46736 5707 12679 -53917 30166
-22723 20200 -6380 -12568 -56433 51000 -27300 61994 -13032 -11064
30394 -55631 -25419 7420 52744 20126 42693 56527 32020 -4878
19932 46549 9795 -61212 -6223 -27673 47156 -8118 -16253 51899
-32877 -16380 -1928 -42060 -59514 9618 -18477 37389 48607 53817
-35850 66957 30877 59132 -43907 28699 -23886 50713 -66294 24869
-61608 52369 -55206 39902 48641 -27993 -4970 76928 -3496 -34838
-56104 -30529 2607 40821 14190 13781 -17646 61938 39409 -21753
44581 20163 59329 19092 7994 -19683 6100 4084 -6541 -27812
-52250 20409 -10896 17757 28809 49116 9074 40480 -46692 -17830
60598 -24514 9355 61981 -48161 65176 -33817 42000 68900 -17733
10119 -28509 43857 17960 15386 -30835 -45043 -46243 -68075 69670
57988 59444 22746 -47882 5681 4426 5216 -24737 -18754 -48917
12143 40459 3684 63801 43080 -35084 4723 45286 40558 -23703
-28675 -18013 -60234 66914 25679 69635 -66380 -3261 21260 -6861
21866 -15131 54433 5931 -8198 50299 30372 -34761 46045 52586
-38513 -23238 1702 -43205 17948 48257 70343 -51628 35668 -61772
-31043 -55631 -62898 27248 66546 -6493 -29864 42585 22547 -1338
40005 6399 -51721 7629 18777 -42465 -18261 -55151 34822 39454
-29084 50669 -24762 -39725 2454 -6493 9401 68718 57222 -31259
-26338 -30750 956 41103 34288 22392 -62427 -2498 -8258 20226
-13175 -18677 36532 49834 -15790 55278 -52800 57204 -26938 -33335
-20752 -30818 60268 28721 -47846 45391 31624 -17129 52245 2015
-16067 26235 433445 -608846 -659842 -547437 -494583 52978 151 -638548
69732 31326 -22212 37685 16301 66818 41119 66325 -42241 -39264
9055 -22388 4441 -10909 21285 43561 41913 65899 37419 -38690
6355 9344 -49358 48239 -49354 27337 54286 59572 35561 -43469
-20671 -57021 18162 -45492 -54674 -32937 65340 11549 1877 -38126
-2094 -49644 16317 -50667 25185 -4361 -24437 40864 -60253 -27468
-62313 57778 19 -35873 -44594 -4499 -25551 -26247 56360 -46773
27459 -18506 559 -52439 -45625 -25744 -61238 35224 -16421 -13186
-16578 -36322 -14327 51168 5689 -63420 -44105 11427 23749 -14745
5503 -28975 24475 24523 -13543 -7074 9410 39787 199 26091
19894 -58987 8777 26981 -28447 4472 -52712 -48797 6143 -17332
-26643 23191 -30200 -40438 -62432 20331 -65936 -53154 34190 8422
-62694 -46347 44404 -55101 47602 35338 18074 23060 -76064 -59598
-40126 -9579 71063 -51336 -51558 -4942 -19771 -50749 20755 -43749
-48260 -22946 30897 22477 7189 40549 42879 -64239 -25273 -62004
26915 -62383 10726 14840 -46453 -26359 -31867 32897 -14541 -2232
27421 -3574 56576 -14228 -59439 -44158 66664 35553 -6567 -28100
-33395 57097 35437 17822 62060 56244 -5443 -60034 17622 23824
32984 68439 51010 -45319 -1955 -3766 -9828 41036 -5496 5428
53018 -62137 -12787 41670 18415 -32754 41362 28923 -10015 41793
-22121 -28487 -26216 -54104 7120 -1682 -54629 -31978 76087 56046
40310 -67201 -12592 2576 -40457 -63694 -54669 -23641 58967 -15122
-30748 -39028 -63902 -20668 18463 -34659 16081 -16454 14738 17966
41700 18903 -35649 16506 63993 68035 -49494 19463 -39913 -20545
-18278 26468 -46692 -5507 -56578 -12508 32986 3130 -75080 22495
29579 -68446 -45334 23987 38261 13976 20937 6886 28040 511
38110 -17584 48396 20872 25633 50649 48049 15343 -20663 63748
3900 23460 8999 60524 -25643 51188 -25915 -18179 -20838 49765
12306 -58970 -49191 12806 -15564 62865 43601 61637 5983 -62633
33021 6439 -6275 59811 61516 15277 -3624 -64951 -7702 15670
3182 -36124 -46317 -51878 7306 -58160 -62449 34324 25437 -56953
23275 30789 6520 -29665 39742 19626 12355 -24757 -37760 -9811
-55168 -32433 45857 -30126 15046 -68917 -47463 19080 70410 16123
15418 -21178 -15696 34180 -44192 66619 -56869 67878 57300 -72292
-57540 1125 -26561 -38407 -12766 39662 -64371 -46471 54796 59779
23946 -28429 -7091 39447 14660 47556 -16119 -734 12167 41436
2092 -32276 9000 25091 -38154 -50613 12956 -35458 -67823 -31260
38248 -64624 -28138 70100 8611 26996 -3376 15655 -43107 54461
-12141 -1526 -565 8903 -39837 53529 5834 18280 -64851 -2340
58274 -23041 50709 -64181 58664 -18656 34949 46007 -53328 -33365
46424 58744 -56863 61260 50823 21664 45984 17142 66243 33800
-14453 -70483 -60134 71783 34950 -26433 31280 -23371 -44831 46975
-57775 29646 -36660 6776 8466 43773 -30564 11565 53921 82254
57011 52537 -26941 -43497 -47799 -58816 70029 46491 38381 29834
52621 29591 -16080 14261 4778 -57553 33514 23281 40156 -61730
48939 33690 -37083 -21017 60313 -54208 7551 47627 7158 36163
-28868 52521 -55764 -15671 16560 -57592 19189 20339 -34640 54852
-8052 -40221 68277 -24391 -56007 -11963 -3564 64315 -21291 55319
-58978 38661 -40319 20918 5327 -22828 -39690 52974 52792 -23695
-3864 41938 65617 -64062 60677 -22576 -13406 51778 -5043 -36666
-1795 -43112 62779 47764 43407 13018 46475 28946 38757 3039
-52903 19642 23705 14183 5464 25612 37768 35142 -32889 1432
13106 42792 -64632 -53586 -12782 61350 25091 27912 24168 23729
41356 5180 8740 50035 47723 7280 62763 63787 7590 -32963
-23556 -45956 47217 21837 24944 26559 32909 -57038 19856 -15632
2437 -23633 -30985 -68994 2872 75594 47727 9468 27966 57448
-3019 -4834 78131 42575 64676 21538 16431 -17335 -36472 50406
34632 -59630 7912 -14735 13469 63247 64071 -22992 -37458 -3602
7350 57371 -15890 42227 46387 24716 -33592 -58254 71296 51155
8095 28323 57066 -23765 42507 48881 -23549 -39086 -13095 18348
-28802 27135 -58395 1805 -17828 5195 41761 -34972 -637 6549
66635 -23781 32925 28557 6925 54228 -872 11922 -16865 49346
570 -4211 3437 -17134 -30663 29115 -71878 -60454 -20208 -7825
-29802 22014 -40265 -1755 -51083 -28221 -18190 48038 -5246 26000
-19338 43831 -33177 -34861 13519 -12483 -44318 30433 62513 -49834
162 -46324 -44436 1931 -45712 -37188 10520 -56221 -1204 26844
-48838 59036 -4781 -29593 -11402 17678 -56480 -43449 -7384 -28406
-44981 32256 -9213 -23283 -59370 38956 -28983 15909 -44814 24583
22789 23911 -61809 -60726 -18071 1743 -31801 4905 65245 29167
-35960 -62862 -31690 17804 65270 -54432 25791 55071 -14319 58583
-63710 44409 -13313 65507 25168 -21761 10921 -37816 63382 -54107
-7805 11805 31333 10334 47903 46740 -4535 -14182 -13594 -33815
-6026 -2660 -59684 -1733 -44787 -36375 42669 60264 26990 66824
26752 -12633 39315 -59557 -59337 -20885 -34973 -18367 18930 -56253
-9958 -33253 -74448 52433 -15917 -63737 31858 67503 -35540 -62122
23833 -34942 62680 8358 7887 -8549 19475 7602 -22332 -49922
47075 -3651 -30831 -6015 -13832 15110 37792 51294 62981 -43609
16065 -30542 -12271 -48234 28706 60199 3535 71248 39576 -8115
58712 -19254 -60068 -75123 -48304 42613 8078 11577 70284 37703
60479 -48290 30391 -32149 -9171 -29759 10383 48816 -1062 -40922
-21954 -43132 -8613 -9309 -16402 -191 50776 17572 25242 -39771
35650 62784 -35027 -43972 2742 -13626 -26089 -5015 2150 -64373
-48143 654 65328 -70417 28523 -18095 -25909 -49738 -36376 -34578
-18724 13222 17668 -48093 -76889 41550 -21663 48336 115824 -55638
46593 -22296 -65807 -31235 -57797 -39319 -33181 7109 49894 -62167
56208 11263 -56901 -47001 51086 -11219 24418 -13386 55097 -43969
16247 29381 15523 14522 20228 -35946 -302 -72285 -6369 -3759
40385 -22781 -52890 739 15344 -27713 -64926 -8406 10427 12466
5605 51398 -63660 20811 23005 59734 -50136 63925 30778 16384
60943 -52925 13780 -29213 6733 35321 -7148 -52546 -50400 23296
-68373 -50359 3504 55068 -26128 -11669 10254 3640 -32926 33395
45655 -33387 53035 -31018 -25937 -15987 -29672 -23234 1250 12065
-51309 -4447 -3381 63807 44632 27282 -52242 20557 42596 55441
22445 39338 -42696 -6838 69685 25452 69463 -40218 72827 -48271
-2505 35748 14476 42875 62714 37795 48737 -32938 -12043 23041
-29098 -18843 35567 -28115 20338 -28947 50166 47424 36323 -29202
8430 59732 63361 14587 861 1454 33280 -51009 -22765 49271
19556 76159 12069 -17842 41314 -4454 60742 16141 76054 11088
2764 39735 48861 55162 -14380 -38867 -25425 47274 29082 19020
-293 30414 -48382 59529 10454 9771 -21218 -48106 59241 44629
-55874 21782 -10800 -12079 -45289 10855 -52500 72460 46175 -8478
36364 -64810 6823 3887 -52577 23204 -41404 65156 -26313 65012
-61793 27834 -70159 -14 -67651 -5363 -17558 962 12544 22793
-17863 16986 54834 36481 -46630 62083 37209 -37343 42531 59681
-45315 64873 -4791 25018 8413 3307 -30935 25032 19735 -18446
21192 -9636 35181 42753 -33813 -9324 34144 46050 34554 -49612
-9412 24018 53728 19178 38361 28393 -9997 -11988 53773 -30185
15205 28348 -29786 50212 7650 -18278 26246 -31348 42630 15958
-36942 52030 62089 14218 18883 -16868 -31630 56439 -58426 -48166
32292 42869 -15728 -18274 -9518 24580 16946 58463 -44512 65868
-5299 -34097 53772 50868 -53083 1605 -52435 -10750 65566 27069
-60866 34824 64325 22676 56430 -30598 -18610 68957 -29933 25027
46747 -14925 58511 13476 43227 -59689 52352 59198 -34179 -67270
-13383 -7698 10457 -42243 -26830 -60608 -63064 30849 31589 12757
6555 32874 -13143 -71508 -49781 23311 43844 42134 18249 12756
-63410 -25423 28006 -43499 -11980 -51750 28856 33668 4558 -59273
2556 68758 -32729 -37310 11558 -52879 34351 -49613 -23571 -47704
43650 -17112 7280 16748 24844 -70609 -74077 58741 23984 61005
40505 -2314 5928 -38027 -2475 -30582 44363 5625 -51316 -24516
14681 8727 9936 -1049 -14787 -18841 -65872 54658 -42 24129
